tree
version=v3
num_class=1
num_tree_per_iteration=1
label_index=0
max_feature_idx=999
objective=binary sigmoid:1
feature_names=Column_0 Column_1 Column_2 Column_3 Column_4 Column_5 Column_6 Column_7 Column_8 Column_9 Column_10 Column_11 Column_12 Column_13 Column_14 Column_15 Column_16 Column_17 Column_18 Column_19 Column_20 Column_21 Column_22 Column_23 Column_24 Column_25 Column_26 Column_27 Column_28 Column_29 Column_30 Column_31 Column_32 Column_33 Column_34 Column_35 Column_36 Column_37 Column_38 Column_39 Column_40 Column_41 Column_42 Column_43 Column_44 Column_45 Column_46 Column_47 Column_48 Column_49 Column_50 Column_51 Column_52 Column_53 Column_54 Column_55 Column_56 Column_57 Column_58 Column_59 Column_60 Column_61 Column_62 Column_63 Column_64 Column_65 Column_66 Column_67 Column_68 Column_69 Column_70 Column_71 Column_72 Column_73 Column_74 Column_75 Column_76 Column_77 Column_78 Column_79 Column_80 Column_81 Column_82 Column_83 Column_84 Column_85 Column_86 Column_87 Column_88 Column_89 Column_90 Column_91 Column_92 Column_93 Column_94 Column_95 Column_96 Column_97 Column_98 Column_99 Column_100 Column_101 Column_102 Column_103 Column_104 Column_105 Column_106 Column_107 Column_108 Column_109 Column_110 Column_111 Column_112 Column_113 Column_114 Column_115 Column_116 Column_117 Column_118 Column_119 Column_120 Column_121 Column_122 Column_123 Column_124 Column_125 Column_126 Column_127 Column_128 Column_129 Column_130 Column_131 Column_132 Column_133 Column_134 Column_135 Column_136 Column_137 Column_138 Column_139 Column_140 Column_141 Column_142 Column_143 Column_144 Column_145 Column_146 Column_147 Column_148 Column_149 Column_150 Column_151 Column_152 Column_153 Column_154 Column_155 Column_156 Column_157 Column_158 Column_159 Column_160 Column_161 Column_162 Column_163 Column_164 Column_165 Column_166 Column_167 Column_168 Column_169 Column_170 Column_171 Column_172 Column_173 Column_174 Column_175 Column_176 Column_177 Column_178 Column_179 Column_180 Column_181 Column_182 Column_183 Column_184 Column_185 Column_186 Column_187 Column_188 Column_189 Column_190 Column_191 Column_192 Column_193 Column_194 Column_195 Column_196 Column_197 Column_198 Column_199 Column_200 Column_201 Column_202 Column_203 Column_204 Column_205 Column_206 Column_207 Column_208 Column_209 Column_210 Column_211 Column_212 Column_213 Column_214 Column_215 Column_216 Column_217 Column_218 Column_219 Column_220 Column_221 Column_222 Column_223 Column_224 Column_225 Column_226 Column_227 Column_228 Column_229 Column_230 Column_231 Column_232 Column_233 Column_234 Column_235 Column_236 Column_237 Column_238 Column_239 Column_240 Column_241 Column_242 Column_243 Column_244 Column_245 Column_246 Column_247 Column_248 Column_249 Column_250 Column_251 Column_252 Column_253 Column_254 Column_255 Column_256 Column_257 Column_258 Column_259 Column_260 Column_261 Column_262 Column_263 Column_264 Column_265 Column_266 Column_267 Column_268 Column_269 Column_270 Column_271 Column_272 Column_273 Column_274 Column_275 Column_276 Column_277 Column_278 Column_279 Column_280 Column_281 Column_282 Column_283 Column_284 Column_285 Column_286 Column_287 Column_288 Column_289 Column_290 Column_291 Column_292 Column_293 Column_294 Column_295 Column_296 Column_297 Column_298 Column_299 Column_300 Column_301 Column_302 Column_303 Column_304 Column_305 Column_306 Column_307 Column_308 Column_309 Column_310 Column_311 Column_312 Column_313 Column_314 Column_315 Column_316 Column_317 Column_318 Column_319 Column_320 Column_321 Column_322 Column_323 Column_324 Column_325 Column_326 Column_327 Column_328 Column_329 Column_330 Column_331 Column_332 Column_333 Column_334 Column_335 Column_336 Column_337 Column_338 Column_339 Column_340 Column_341 Column_342 Column_343 Column_344 Column_345 Column_346 Column_347 Column_348 Column_349 Column_350 Column_351 Column_352 Column_353 Column_354 Column_355 Column_356 Column_357 Column_358 Column_359 Column_360 Column_361 Column_362 Column_363 Column_364 Column_365 Column_366 Column_367 Column_368 Column_369 Column_370 Column_371 Column_372 Column_373 Column_374 Column_375 Column_376 Column_377 Column_378 Column_379 Column_380 Column_381 Column_382 Column_383 Column_384 Column_385 Column_386 Column_387 Column_388 Column_389 Column_390 Column_391 Column_392 Column_393 Column_394 Column_395 Column_396 Column_397 Column_398 Column_399 Column_400 Column_401 Column_402 Column_403 Column_404 Column_405 Column_406 Column_407 Column_408 Column_409 Column_410 Column_411 Column_412 Column_413 Column_414 Column_415 Column_416 Column_417 Column_418 Column_419 Column_420 Column_421 Column_422 Column_423 Column_424 Column_425 Column_426 Column_427 Column_428 Column_429 Column_430 Column_431 Column_432 Column_433 Column_434 Column_435 Column_436 Column_437 Column_438 Column_439 Column_440 Column_441 Column_442 Column_443 Column_444 Column_445 Column_446 Column_447 Column_448 Column_449 Column_450 Column_451 Column_452 Column_453 Column_454 Column_455 Column_456 Column_457 Column_458 Column_459 Column_460 Column_461 Column_462 Column_463 Column_464 Column_465 Column_466 Column_467 Column_468 Column_469 Column_470 Column_471 Column_472 Column_473 Column_474 Column_475 Column_476 Column_477 Column_478 Column_479 Column_480 Column_481 Column_482 Column_483 Column_484 Column_485 Column_486 Column_487 Column_488 Column_489 Column_490 Column_491 Column_492 Column_493 Column_494 Column_495 Column_496 Column_497 Column_498 Column_499 Column_500 Column_501 Column_502 Column_503 Column_504 Column_505 Column_506 Column_507 Column_508 Column_509 Column_510 Column_511 Column_512 Column_513 Column_514 Column_515 Column_516 Column_517 Column_518 Column_519 Column_520 Column_521 Column_522 Column_523 Column_524 Column_525 Column_526 Column_527 Column_528 Column_529 Column_530 Column_531 Column_532 Column_533 Column_534 Column_535 Column_536 Column_537 Column_538 Column_539 Column_540 Column_541 Column_542 Column_543 Column_544 Column_545 Column_546 Column_547 Column_548 Column_549 Column_550 Column_551 Column_552 Column_553 Column_554 Column_555 Column_556 Column_557 Column_558 Column_559 Column_560 Column_561 Column_562 Column_563 Column_564 Column_565 Column_566 Column_567 Column_568 Column_569 Column_570 Column_571 Column_572 Column_573 Column_574 Column_575 Column_576 Column_577 Column_578 Column_579 Column_580 Column_581 Column_582 Column_583 Column_584 Column_585 Column_586 Column_587 Column_588 Column_589 Column_590 Column_591 Column_592 Column_593 Column_594 Column_595 Column_596 Column_597 Column_598 Column_599 Column_600 Column_601 Column_602 Column_603 Column_604 Column_605 Column_606 Column_607 Column_608 Column_609 Column_610 Column_611 Column_612 Column_613 Column_614 Column_615 Column_616 Column_617 Column_618 Column_619 Column_620 Column_621 Column_622 Column_623 Column_624 Column_625 Column_626 Column_627 Column_628 Column_629 Column_630 Column_631 Column_632 Column_633 Column_634 Column_635 Column_636 Column_637 Column_638 Column_639 Column_640 Column_641 Column_642 Column_643 Column_644 Column_645 Column_646 Column_647 Column_648 Column_649 Column_650 Column_651 Column_652 Column_653 Column_654 Column_655 Column_656 Column_657 Column_658 Column_659 Column_660 Column_661 Column_662 Column_663 Column_664 Column_665 Column_666 Column_667 Column_668 Column_669 Column_670 Column_671 Column_672 Column_673 Column_674 Column_675 Column_676 Column_677 Column_678 Column_679 Column_680 Column_681 Column_682 Column_683 Column_684 Column_685 Column_686 Column_687 Column_688 Column_689 Column_690 Column_691 Column_692 Column_693 Column_694 Column_695 Column_696 Column_697 Column_698 Column_699 Column_700 Column_701 Column_702 Column_703 Column_704 Column_705 Column_706 Column_707 Column_708 Column_709 Column_710 Column_711 Column_712 Column_713 Column_714 Column_715 Column_716 Column_717 Column_718 Column_719 Column_720 Column_721 Column_722 Column_723 Column_724 Column_725 Column_726 Column_727 Column_728 Column_729 Column_730 Column_731 Column_732 Column_733 Column_734 Column_735 Column_736 Column_737 Column_738 Column_739 Column_740 Column_741 Column_742 Column_743 Column_744 Column_745 Column_746 Column_747 Column_748 Column_749 Column_750 Column_751 Column_752 Column_753 Column_754 Column_755 Column_756 Column_757 Column_758 Column_759 Column_760 Column_761 Column_762 Column_763 Column_764 Column_765 Column_766 Column_767 Column_768 Column_769 Column_770 Column_771 Column_772 Column_773 Column_774 Column_775 Column_776 Column_777 Column_778 Column_779 Column_780 Column_781 Column_782 Column_783 Column_784 Column_785 Column_786 Column_787 Column_788 Column_789 Column_790 Column_791 Column_792 Column_793 Column_794 Column_795 Column_796 Column_797 Column_798 Column_799 Column_800 Column_801 Column_802 Column_803 Column_804 Column_805 Column_806 Column_807 Column_808 Column_809 Column_810 Column_811 Column_812 Column_813 Column_814 Column_815 Column_816 Column_817 Column_818 Column_819 Column_820 Column_821 Column_822 Column_823 Column_824 Column_825 Column_826 Column_827 Column_828 Column_829 Column_830 Column_831 Column_832 Column_833 Column_834 Column_835 Column_836 Column_837 Column_838 Column_839 Column_840 Column_841 Column_842 Column_843 Column_844 Column_845 Column_846 Column_847 Column_848 Column_849 Column_850 Column_851 Column_852 Column_853 Column_854 Column_855 Column_856 Column_857 Column_858 Column_859 Column_860 Column_861 Column_862 Column_863 Column_864 Column_865 Column_866 Column_867 Column_868 Column_869 Column_870 Column_871 Column_872 Column_873 Column_874 Column_875 Column_876 Column_877 Column_878 Column_879 Column_880 Column_881 Column_882 Column_883 Column_884 Column_885 Column_886 Column_887 Column_888 Column_889 Column_890 Column_891 Column_892 Column_893 Column_894 Column_895 Column_896 Column_897 Column_898 Column_899 Column_900 Column_901 Column_902 Column_903 Column_904 Column_905 Column_906 Column_907 Column_908 Column_909 Column_910 Column_911 Column_912 Column_913 Column_914 Column_915 Column_916 Column_917 Column_918 Column_919 Column_920 Column_921 Column_922 Column_923 Column_924 Column_925 Column_926 Column_927 Column_928 Column_929 Column_930 Column_931 Column_932 Column_933 Column_934 Column_935 Column_936 Column_937 Column_938 Column_939 Column_940 Column_941 Column_942 Column_943 Column_944 Column_945 Column_946 Column_947 Column_948 Column_949 Column_950 Column_951 Column_952 Column_953 Column_954 Column_955 Column_956 Column_957 Column_958 Column_959 Column_960 Column_961 Column_962 Column_963 Column_964 Column_965 Column_966 Column_967 Column_968 Column_969 Column_970 Column_971 Column_972 Column_973 Column_974 Column_975 Column_976 Column_977 Column_978 Column_979 Column_980 Column_981 Column_982 Column_983 Column_984 Column_985 Column_986 Column_987 Column_988 Column_989 Column_990 Column_991 Column_992 Column_993 Column_994 Column_995 Column_996 Column_997 Column_998 Column_999
feature_infos=[-0.90200000000000002:1.9119999999999999] [-0.79500000000000004:1.716] [-0.72599999999999998:1.762] [-0.92800000000000005:1.6919999999999999] [-0.78400000000000003:1.893] [-0.68000000000000005:1.661] [-0.755:1.9390000000000001] [-0.67100000000000004:1.7529999999999999] [-0.79400000000000004:1.6639999999999999] [-1.069:1.9670000000000001] [-0.68899999999999995:1.6830000000000001] [-0.92600000000000005:1.903] [-0.63300000000000001:1.8879999999999999] [-0.73599999999999999:1.583] [-0.93300000000000005:1.5820000000000001] [-0.97799999999999998:1.728] [-0.83799999999999997:1.944] [-0.90300000000000002:2.0249999999999999] [-0.871:1.6719999999999999] [-0.57199999999999995:1.9470000000000001] [-0.88300000000000001:1.7949999999999999] [-0.69399999999999995:1.7529999999999999] [-0.71599999999999997:1.7150000000000001] [-1.165:1.9379999999999999] [-0.83799999999999997:1.8140000000000001] [-0.66100000000000003:1.875] [-1.087:1.8220000000000001] [-0.84199999999999997:1.8540000000000001] [-0.83899999999999997:1.966] [-0.73299999999999998:1.857] [-0.68600000000000005:1.8109999999999999] [-0.64800000000000002:1.6919999999999999] [-1.014:1.7709999999999999] [-0.83699999999999997:1.835] [-0.92300000000000004:1.827] [-0.85599999999999998:1.897] [-0.83799999999999997:1.802] [-0.98899999999999999:1.7350000000000001] [-0.745:1.736] [-0.68600000000000005:1.8] [-0.97799999999999998:1.8819999999999999] [-0.63500000000000001:1.901] [-0.95799999999999996:1.5609999999999999] [-0.78400000000000003:1.9299999999999999] [-0.93400000000000005:1.7470000000000001] [-0.71999999999999997:1.8939999999999999] [-0.90200000000000002:1.889] [-0.77100000000000002:1.9750000000000001] [-0.879:1.8859999999999999] [-0.81999999999999995:1.8280000000000001] [-0.81899999999999995:1.861] [-0.78900000000000003:1.6970000000000001] [-0.98799999999999999:1.782] [-0.68799999999999994:1.8069999999999999] [-1.0209999999999999:2.0129999999999999] [-0.78300000000000003:1.6419999999999999] [-0.70799999999999996:1.927] [-0.71999999999999997:1.8009999999999999] [-0.93700000000000006:1.7689999999999999] [-0.68799999999999994:1.946] [-0.68100000000000005:1.891] [-0.72699999999999998:1.847] [-0.67300000000000004:1.6279999999999999] [-0.69799999999999995:1.8420000000000001] [-0.88500000000000001:1.71] [-0.81299999999999994:2.0739999999999998] [-0.81999999999999995:1.871] [-1.256:1.917] [-0.83499999999999996:1.9890000000000001] [-0.80600000000000005:1.879] [-0.69199999999999995:1.78] [-0.98599999999999999:1.9379999999999999] [-0.97599999999999998:1.891] [-0.96899999999999997:1.833] [-0.77200000000000002:1.716] [-0.68700000000000006:1.7849999999999999] [-0.86499999999999999:1.8580000000000001] [-0.72799999999999998:1.6120000000000001] [-0.81899999999999995:1.766] [-0.67900000000000005:1.653] [-0.89300000000000002:1.6140000000000001] [-0.73799999999999999:1.833] [-0.71299999999999997:1.958] [-0.78700000000000003:1.905] [-0.90100000000000002:1.9470000000000001] [-0.79700000000000004:1.919] [-0.98199999999999998:1.732] [-0.82499999999999996:1.891] [-0.72999999999999998:1.7250000000000001] [-0.81599999999999995:1.849] [-0.76400000000000001:1.8069999999999999] [-0.72999999999999998:1.8029999999999999] [-0.70599999999999996:1.6120000000000001] [-1:2.0960000000000001] [-0.69199999999999995:1.667] [-0.88700000000000001:1.802] [-0.89700000000000002:1.7809999999999999] [-0.67400000000000004:1.958] [-1.0269999999999999:1.8240000000000001] [-0.84199999999999997:1.9970000000000001] [-0.70499999999999996:1.6879999999999999] [-0.76900000000000002:1.7110000000000001] [-0.77700000000000002:1.8660000000000001] [-0.85899999999999999:1.778] [-0.97399999999999998:1.9730000000000001] [-0.80200000000000005:1.667] [-0.81299999999999994:1.7350000000000001] [-0.86799999999999999:1.718] [-0.90900000000000003:1.8440000000000001] [-0.81599999999999995:1.8600000000000001] [-0.78100000000000003:1.897] [-0.78400000000000003:1.8859999999999999] [-0.78700000000000003:1.796] [-0.75600000000000001:1.581] [-0.89900000000000002:1.8540000000000001] [-0.82199999999999995:1.7130000000000001] [-0.90500000000000003:1.9339999999999999] [-0.88:2.1789999999999998] [-1.2270000000000001:1.911] [-0.627:1.7370000000000001] [-0.85599999999999998:1.7110000000000001] [-0.72899999999999998:1.6339999999999999] [-0.82399999999999995:1.6870000000000001] [-0.80700000000000005:1.667] [-0.70999999999999996:1.7909999999999999] [-0.82099999999999995:2.0070000000000001] [-0.86799999999999999:1.6140000000000001] [-0.69199999999999995:1.782] [-0.872:2.0390000000000001] [-0.72399999999999998:1.841] [-0.78000000000000003:1.8720000000000001] [-0.61099999999999999:1.8919999999999999] [-0.81399999999999995:1.901] [-0.84799999999999998:1.8859999999999999] [-0.71599999999999997:1.8009999999999999] [-0.91100000000000003:1.8859999999999999] [-0.84299999999999997:1.7450000000000001] [-0.75:1.7589999999999999] [-0.67800000000000005:1.8480000000000001] [-1.01:1.7150000000000001] [-0.65000000000000002:1.712] [-0.73099999999999998:1.9950000000000001] [-0.93799999999999994:1.9239999999999999] [-0.89400000000000002:1.8340000000000001] [-0.77700000000000002:1.8140000000000001] [-0.92100000000000004:1.903] [-0.84399999999999997:1.875] [-0.67900000000000005:1.9350000000000001] [-0.80800000000000005:1.8009999999999999] [-0.88500000000000001:2.1299999999999999] [-0.96799999999999997:1.6339999999999999] [-0.72799999999999998:2.0059999999999998] [-0.83399999999999996:2.056] [-0.77300000000000002:1.7190000000000001] [-1.03:2.4159999999999999] [-0.755:1.7130000000000001] [-0.95999999999999996:1.8779999999999999] [-0.84999999999999998:1.972] [-0.68899999999999995:1.8560000000000001] [-0.65000000000000002:1.8939999999999999] [-1.0900000000000001:1.6459999999999999] [-0.746:1.895] [-0.96899999999999997:1.8420000000000001] [-0.76300000000000001:1.7829999999999999] [-0.72599999999999998:1.9079999999999999] [-0.80500000000000005:1.744] [-0.90900000000000003:1.9279999999999999] [-0.73199999999999998:1.7130000000000001] [-0.82699999999999996:1.8500000000000001] [-1.0109999999999999:1.833] [-0.73899999999999999:1.8360000000000001] [-0.95399999999999996:1.6539999999999999] [-1.0640000000000001:1.8400000000000001] [-0.83399999999999996:1.772] [-0.92600000000000005:1.851] [-0.71699999999999997:1.7549999999999999] [-0.70899999999999996:1.74] [-0.91500000000000004:1.8109999999999999] [-0.75800000000000001:1.702] [-0.58399999999999996:1.8100000000000001] [-0.90200000000000002:1.8120000000000001] [-0.67700000000000005:1.829] [-0.871:1.7569999999999999] [-0.85099999999999998:1.8320000000000001] [-0.88:1.8009999999999999] [-0.65900000000000003:1.8520000000000001] [-0.73799999999999999:1.909] [-0.66100000000000003:1.772] [-1.1200000000000001:1.901] [-0.72299999999999998:1.966] [-0.82499999999999996:1.925] [-1.0289999999999999:1.9550000000000001] [-0.71199999999999997:2.0289999999999999] [-0.873:1.873] [-0.79600000000000004:1.9299999999999999] [-0.83699999999999997:1.764] [-0.81499999999999995:1.623] [-0.95299999999999996:1.8220000000000001] [-0.85299999999999998:1.6879999999999999] [-0.78400000000000003:1.865] [-0.79400000000000004:1.8160000000000001] [-0.78700000000000003:1.835] [-0.81100000000000005:1.7310000000000001] [-0.749:1.6619999999999999] [-0.79400000000000004:1.8029999999999999] [-0.77400000000000002:1.847] [-0.90400000000000003:2.2949999999999999] [-0.746:1.8580000000000001] [-0.67000000000000004:1.8720000000000001] [-0.93799999999999994:1.8320000000000001] [-0.81999999999999995:1.589] [-0.86899999999999999:2.0030000000000001] [-0.91300000000000003:1.77] [-0.85599999999999998:1.7] [-0.72299999999999998:1.7809999999999999] [-0.86499999999999999:1.7929999999999999] [-0.76500000000000001:1.913] [-0.92700000000000005:1.6299999999999999] [-0.78300000000000003:2.052] [-0.78800000000000003:1.6180000000000001] [-1.022:2.0019999999999998] [-0.61599999999999999:1.79] [-0.92600000000000005:1.829] [-0.873:1.78] [-0.56699999999999995:1.6990000000000001] [-0.77000000000000002:1.788] [-0.77500000000000002:1.7290000000000001] [-0.96799999999999997:1.9119999999999999] [-0.83199999999999996:1.909] [-0.72299999999999998:1.538] [-0.73499999999999999:1.825] [-0.92800000000000005:1.7569999999999999] [-0.83599999999999997:1.7170000000000001] [-0.73499999999999999:1.601] [-0.75800000000000001:1.7130000000000001] [-0.93000000000000005:1.9399999999999999] [-0.81100000000000005:1.6899999999999999] [-0.72299999999999998:1.7110000000000001] [-0.72299999999999998:1.7529999999999999] [-0.98099999999999998:1.776] [-0.83399999999999996:1.8049999999999999] [-1.1140000000000001:1.6220000000000001] [-1.0720000000000001:1.974] [-0.76800000000000002:1.7749999999999999] [-1.0529999999999999:1.7050000000000001] [-0.88200000000000001:1.827] [-0.97399999999999998:1.885] [-0.78300000000000003:1.915] [-0.88500000000000001:1.9970000000000001] [-0.84099999999999997:1.855] [-0.73499999999999999:1.909] [-0.98899999999999999:1.794] [-0.80300000000000005:1.7050000000000001] [-1.0269999999999999:1.714] [-0.75800000000000001:1.78] [-0.84599999999999997:1.784] [-0.82499999999999996:1.7729999999999999] [-0.89100000000000001:2.0350000000000001] [-0.85299999999999998:1.8140000000000001] [-0.68999999999999995:1.633] [-0.79700000000000004:1.798] [-0.81699999999999995:1.752] [-0.77900000000000003:1.7170000000000001] [-0.81299999999999994:1.7070000000000001] [-0.73599999999999999:1.784] [-0.86199999999999999:1.7170000000000001] [-0.92900000000000005:1.8260000000000001] [-0.751:1.7290000000000001] [-0.70199999999999996:1.8320000000000001] [-0.95999999999999996:1.883] [-0.85299999999999998:1.8260000000000001] [-0.91700000000000004:1.8919999999999999] [-0.64400000000000002:1.978] [-0.621:1.7949999999999999] [-1.1339999999999999:1.849] [-0.63300000000000001:2.0910000000000002] [-0.56200000000000006:1.8129999999999999] [-0.63400000000000001:1.97] [-0.77600000000000002:1.8879999999999999] [-0.873:1.9770000000000001] [-0.752:2.0339999999999998] [-1.099:1.8149999999999999] [-0.65700000000000003:1.764] [-0.74399999999999999:1.734] [-0.79100000000000004:1.7170000000000001] [-0.76400000000000001:1.881] [-0.79400000000000004:1.946] [-0.78700000000000003:1.8560000000000001] [-0.99399999999999999:2.2440000000000002] [-0.63400000000000001:1.8460000000000001] [-1.1200000000000001:1.75] [-0.79400000000000004:1.8819999999999999] [-0.76000000000000001:1.865] [-0.86199999999999999:1.75] [-0.69999999999999996:1.821] [-0.77900000000000003:1.74] [-0.69599999999999995:1.7509999999999999] [-0.67000000000000004:1.9650000000000001] [-0.81299999999999994:1.9279999999999999] [-0.64700000000000002:2.085] [-1.0129999999999999:1.804] [-0.80200000000000005:1.6659999999999999] [-0.73999999999999999:1.591] [-0.72999999999999998:1.673] [-0.90800000000000003:1.8260000000000001] [-0.79000000000000004:1.79] [-0.71099999999999997:1.7290000000000001] [-0.89100000000000001:1.956] [-0.79400000000000004:1.871] [-0.84199999999999997:1.847] [-1.3580000000000001:1.784] [-0.77500000000000002:1.8979999999999999] [-0.90800000000000003:1.6319999999999999] [-0.79700000000000004:1.714] [-0.78600000000000003:1.76] [-0.73099999999999998:2.0289999999999999] [-0.85399999999999998:1.665] [-0.66700000000000004:1.871] [-0.91000000000000003:1.8129999999999999] [-0.98999999999999999:1.661] [-0.73099999999999998:1.7170000000000001] [-0.76000000000000001:1.722] [-0.751:1.7749999999999999] [-0.67300000000000004:2.0009999999999999] [-0.95999999999999996:1.875] [-0.74199999999999999:1.9370000000000001] [-0.71199999999999997:1.7729999999999999] [-0.91100000000000003:1.7130000000000001] [-0.86499999999999999:1.8] [-0.80700000000000005:1.9119999999999999] [-0.621:1.6899999999999999] [-0.86099999999999999:2.3439999999999999] [-0.73099999999999998:2.0059999999999998] [-0.995:2.0249999999999999] [-0.89400000000000002:1.8440000000000001] [-0.72999999999999998:1.8799999999999999] [-0.89300000000000002:1.9630000000000001] [-0.876:1.6899999999999999] [-0.81399999999999995:1.8129999999999999] [-0.71199999999999997:1.845] [-0.68200000000000005:1.873] [-0.64200000000000002:1.6830000000000001] [-0.77800000000000002:1.861] [-0.82899999999999996:1.849] [-0.85699999999999998:1.76] [-0.63800000000000001:1.98] [-0.85199999999999998:1.8959999999999999] [-0.85299999999999998:2.0510000000000002] [-0.64500000000000002:1.788] [-0.67300000000000004:1.8029999999999999] [-0.78100000000000003:1.6539999999999999] [-0.79700000000000004:1.752] [-0.93799999999999994:1.9430000000000001] [-0.878:1.7969999999999999] [-0.80400000000000005:1.649] [-0.61299999999999999:1.905] [-0.84499999999999997:1.853] [-0.67200000000000004:1.847] [-0.83899999999999997:1.73] [-0.66200000000000003:1.825] [-0.90800000000000003:1.726] [-1.117:1.7070000000000001] [-0.81999999999999995:1.7529999999999999] [-0.86799999999999999:1.6759999999999999] [-0.86299999999999999:1.837] [-0.63400000000000001:1.8520000000000001] [-0.93899999999999995:1.8700000000000001] [-0.94699999999999995:1.8169999999999999] [-1.002:1.6919999999999999] [-0.98499999999999999:1.8120000000000001] [-0.85199999999999998:1.726] [-0.83899999999999997:1.9099999999999999] [-0.64000000000000001:1.984] [-0.71199999999999997:1.865] [-0.89900000000000002:1.675] [-0.84099999999999997:1.7370000000000001] [-0.95999999999999996:2.1909999999999998] [-0.75800000000000001:1.976] [-0.90000000000000002:1.9139999999999999] [-0.76500000000000001:2.02] [-1.034:1.7989999999999999] [-0.82499999999999996:1.6659999999999999] [-0.73899999999999999:1.6399999999999999] [-0.78900000000000003:1.972] [-0.748:1.9450000000000001] [-0.92100000000000004:1.708] [-0.98499999999999999:1.6839999999999999] [-0.753:2.3959999999999999] [-0.80900000000000005:1.7230000000000001] [-0.91700000000000004:1.8029999999999999] [-0.93400000000000005:1.891] [-1.0700000000000001:1.6739999999999999] [-0.89600000000000002:2.0009999999999999] [-0.94399999999999995:1.6719999999999999] [-0.752:1.9990000000000001] [-0.93999999999999995:1.921] [-0.91300000000000003:1.7589999999999999] [-0.83299999999999996:1.8400000000000001] [-0.879:1.78] [-0.96799999999999997:1.9239999999999999] [-0.71199999999999997:1.9750000000000001] [-0.70299999999999996:1.762] [-0.878:1.7230000000000001] [-0.83099999999999996:2.2330000000000001] [-0.746:1.855] [-1.222:1.7769999999999999] [-0.65100000000000002:1.9419999999999999] [-0.76700000000000002:2.1259999999999999] [-0.96799999999999997:1.7030000000000001] [-0.83299999999999996:1.6000000000000001] [-0.84199999999999997:1.8640000000000001] [-1.034:1.7669999999999999] [-0.97399999999999998:1.984] [-0.84899999999999998:1.907] [-0.96499999999999997:1.6559999999999999] [-0.68000000000000005:1.6459999999999999] [-0.83099999999999996:1.71] [-0.748:1.7569999999999999] [-0.878:1.7929999999999999] [-0.75:1.651] [-1.1100000000000001:1.806] [-1.0209999999999999:2.069] [-0.78800000000000003:1.6259999999999999] [-0.83799999999999997:1.974] [-0.84199999999999997:1.847] [-0.79500000000000004:1.839] [-0.83199999999999996:1.899] [-0.77100000000000002:1.7430000000000001] [-0.80200000000000005:1.7250000000000001] [-0.74299999999999999:1.7050000000000001] [-0.97499999999999998:1.704] [-0.81299999999999994:1.782] [-0.80500000000000005:1.944] [-0.76500000000000001:1.7669999999999999] [-0.73199999999999998:1.782] [-0.91900000000000004:1.99] [-1.0149999999999999:1.7789999999999999] [-0.80500000000000005:1.9379999999999999] [-0.88400000000000001:1.6950000000000001] [-0.63200000000000001:1.857] [-0.77700000000000002:2.0640000000000001] [-0.70799999999999996:1.845] [-1.2829999999999999:1.756] [-0.76900000000000002:1.9199999999999999] [-1.0569999999999999:1.7430000000000001] [-0.81000000000000005:1.972] [-0.754:1.5900000000000001] [-0.80600000000000005:1.913] [-0.71499999999999997:1.8180000000000001] [-0.72099999999999997:1.8899999999999999] [-0.76900000000000002:2.2599999999999998] [-0.79500000000000004:1.6399999999999999] [-0.76400000000000001:1.776] [-0.79900000000000004:1.8080000000000001] [-0.96299999999999997:1.96] [-0.74099999999999999:1.712] [-0.73499999999999999:1.899] [-0.68700000000000006:1.9530000000000001] [-1.046:1.704] [-0.84599999999999997:1.7490000000000001] [-0.78200000000000003:1.615] [-0.66700000000000004:1.7969999999999999] [-0.72699999999999998:1.871] [-0.746:1.8839999999999999] [-0.97199999999999998:1.861] [-0.754:1.7669999999999999] [-0.76700000000000002:1.772] [-0.81999999999999995:1.77] [-0.83599999999999997:1.7569999999999999] [-0.91100000000000003:1.8520000000000001] [-0.95899999999999996:1.718] [-0.997:1.7470000000000001] [-0.77400000000000002:1.603] [-0.73099999999999998:1.786] [-1.0069999999999999:2.0049999999999999] [-0.79500000000000004:2.0310000000000001] [-1.038:1.9350000000000001] [-0.78200000000000003:2.222] [-0.90200000000000002:1.798] [-0.94699999999999995:1.607] [-0.628:1.8149999999999999] [-0.83999999999999997:1.859] [-1.0069999999999999:1.9450000000000001] [-0.79700000000000004:1.7749999999999999] [-0.92800000000000005:1.716] [-0.84199999999999997:1.748] [-1.028:1.796] [-0.84899999999999998:1.7989999999999999] [-0.94099999999999995:1.7370000000000001] [-0.82099999999999995:2.0510000000000002] [-0.85999999999999999:2.3029999999999999] [-0.69499999999999995:1.706] [-0.81000000000000005:1.6080000000000001] [-0.96199999999999997:1.8300000000000001] [-0.77800000000000002:1.758] [-0.83699999999999997:1.712] [-0.79500000000000004:1.8320000000000001] [-0.72999999999999998:1.77] [-0.73999999999999999:1.722] [-0.90700000000000003:1.698] [-0.85299999999999998:1.7110000000000001] [-0.97999999999999998:1.7130000000000001] [-0.91400000000000003:1.734] [-0.92100000000000004:1.653] [-0.89100000000000001:1.7629999999999999] [-0.93200000000000005:1.79] [-0.58899999999999997:1.8400000000000001] [-0.79300000000000004:1.589] [-0.94299999999999995:1.829] [-0.70699999999999996:1.7729999999999999] [-0.63200000000000001:1.806] [-0.62:2.1379999999999999] [-0.73799999999999999:2.085] [-0.65700000000000003:1.5860000000000001] [-0.83899999999999997:1.6830000000000001] [-1.0049999999999999:1.6899999999999999] [-0.69499999999999995:2.0419999999999998] [-0.93600000000000005:1.9590000000000001] [-0.86299999999999999:1.75] [-0.77900000000000003:1.8919999999999999] [-1.0269999999999999:1.819] [-0.78800000000000003:1.6120000000000001] [-0.94799999999999995:1.891] [-0.83899999999999997:1.952] [-0.76100000000000001:1.736] [-1.1060000000000001:1.8240000000000001] [-0.93899999999999995:1.7330000000000001] [-0.68799999999999994:1.714] [-0.82799999999999996:1.8129999999999999] [-0.74099999999999999:1.9399999999999999] [-0.81999999999999995:1.956] [-0.77500000000000002:1.8520000000000001] [-0.96499999999999997:2.0190000000000001] [-0.79100000000000004:1.778] [-0.79500000000000004:1.968] [-0.81899999999999995:1.948] [-0.79600000000000004:1.621] [-0.69699999999999995:1.9179999999999999] [-0.60199999999999998:1.796] [-0.61799999999999999:1.8720000000000001] [-0.73799999999999999:2.0710000000000002] [-0.86699999999999999:1.958] [-0.85899999999999999:2.028] [-0.77400000000000002:1.7649999999999999] [-0.82599999999999996:1.8540000000000001] [-1.02:1.887] [-0.879:1.8129999999999999] [-1.012:1.742] [-0.77700000000000002:1.6870000000000001] [-0.69999999999999996:1.8200000000000001] [-0.85199999999999998:1.982] [-0.86299999999999999:1.7969999999999999] [-0.78300000000000003:1.8100000000000001] [-1.292:1.7909999999999999] [-0.88700000000000001:1.9470000000000001] [-0.85399999999999998:1.704] [-0.84999999999999998:1.6180000000000001] [-0.622:1.863] [-0.71799999999999997:1.8049999999999999] [-0.77800000000000002:1.7150000000000001] [-0.85799999999999998:1.9930000000000001] [-0.96399999999999997:1.9650000000000001] [-0.85999999999999999:1.9750000000000001] [-0.77500000000000002:1.806] [-0.88500000000000001:1.8200000000000001] [-0.84199999999999997:1.829] [-0.90900000000000003:1.7250000000000001] [-0.85099999999999998:1.8500000000000001] [-0.995:1.913] [-0.70599999999999996:1.6739999999999999] [-0.75600000000000001:1.663] [-0.996:1.893] [-0.92400000000000004:1.827] [-0.73599999999999999:1.7549999999999999] [-0.71299999999999997:1.9419999999999999] [-0.78000000000000003:1.792] [-0.88500000000000001:1.8620000000000001] [-0.97999999999999998:2.165] [-0.89500000000000002:1.778] [-0.68400000000000005:1.7629999999999999] [-0.71099999999999997:1.6879999999999999] [-0.71099999999999997:1.9930000000000001] [-0.74099999999999999:1.8640000000000001] [-0.91700000000000004:1.925] [-0.65600000000000003:1.6759999999999999] [-0.86599999999999999:1.663] [-0.58599999999999997:1.8560000000000001] [-1.0349999999999999:1.8520000000000001] [-0.88:1.9370000000000001] [-0.91800000000000004:1.7609999999999999] [-0.83499999999999996:1.6859999999999999] [-0.84799999999999998:1.8109999999999999] [-0.80500000000000005:1.748] [-1.083:1.736] [-0.83399999999999996:1.635] [-0.96099999999999997:1.708] [-1.0640000000000001:1.9570000000000001] [-0.73799999999999999:1.5840000000000001] [-0.67200000000000004:1.762] [-0.84699999999999998:1.6859999999999999] [-0.81599999999999995:1.794] [-1.0109999999999999:1.619] [-0.90100000000000002:2.016] [-0.91300000000000003:1.883] [-1.034:1.802] [-0.68999999999999995:1.8069999999999999] [-0.71699999999999997:2.0179999999999998] [-0.84799999999999998:1.9730000000000001] [-0.67400000000000004:1.637] [-1.2230000000000001:1.8380000000000001] [-0.74099999999999999:1.829] [-0.89400000000000002:1.744] [-0.66200000000000003:1.748] [-0.84199999999999997:2.081] [-0.81699999999999995:1.7769999999999999] [-0.84799999999999998:1.8100000000000001] [-0.99199999999999999:2.0470000000000002] [-0.86399999999999999:1.7450000000000001] [-0.76700000000000002:2.004] [-0.86799999999999999:1.7729999999999999] [-0.71499999999999997:1.857] [-0.89500000000000002:1.7130000000000001] [-0.73699999999999999:1.9690000000000001] [-0.76100000000000001:1.7230000000000001] [-0.73899999999999999:1.679] [-0.85099999999999998:1.645] [-1.0229999999999999:1.8260000000000001] [-1.0449999999999999:1.8939999999999999] [-0.84599999999999997:1.754] [-0.97999999999999998:1.772] [-1.0249999999999999:2.3599999999999999] [-0.63700000000000001:1.8720000000000001] [-0.80100000000000005:2.028] [-1.2230000000000001:2.077] [-0.88900000000000001:1.7929999999999999] [-0.76200000000000001:1.8839999999999999] [-0.79200000000000004:2.0409999999999999] [-0.745:1.7110000000000001] [-0.69799999999999995:1.8420000000000001] [-0.91900000000000004:1.7809999999999999] [-0.80100000000000005:1.927] [-0.65900000000000003:1.744] [-0.74199999999999999:1.845] [-0.75600000000000001:1.7370000000000001] [-0.997:1.6990000000000001] [-0.872:1.917] [-0.76700000000000002:1.6799999999999999] [-0.93200000000000005:1.7809999999999999] [-0.78900000000000003:1.744] [-0.76400000000000001:1.7] [-0.93000000000000005:1.7709999999999999] [-1.1499999999999999:1.8799999999999999] [-0.874:1.7490000000000001] [-0.83999999999999997:1.5760000000000001] [-0.94999999999999996:1.7470000000000001] [-1.175:1.7689999999999999] [-0.92500000000000004:1.736] [-1.016:1.9330000000000001] [-0.85799999999999998:1.782] [-0.91000000000000003:1.8580000000000001] [-1.0720000000000001:1.891] [-0.59899999999999998:1.821] [-0.84099999999999997:1.819] [-0.58699999999999997:1.7609999999999999] [-0.80600000000000005:1.8069999999999999] [-0.627:1.6599999999999999] [-0.85699999999999998:1.831] [-0.93700000000000006:1.6830000000000001] [-1.1619999999999999:1.8819999999999999] [-0.83399999999999996:1.6579999999999999] [-0.86099999999999999:1.7130000000000001] [-1.034:1.8280000000000001] [-0.94699999999999995:1.919] [-0.84899999999999998:1.7410000000000001] [-0.75600000000000001:1.7130000000000001] [-0.81699999999999995:1.681] [-0.80400000000000005:1.923] [-0.875:1.6950000000000001] [-0.81100000000000005:2.0150000000000001] [-0.81799999999999995:1.8520000000000001] [-0.76000000000000001:1.8049999999999999] [-0.94899999999999995:1.7909999999999999] [-0.69399999999999995:1.7809999999999999] [-0.751:1.766] [-0.88800000000000001:1.7589999999999999] [-0.78700000000000003:1.855] [-0.92900000000000005:1.9299999999999999] [-0.94599999999999995:1.8420000000000001] [-0.80000000000000004:2.0760000000000001] [-1.155:1.833] [-0.745:1.881] [-0.89000000000000001:1.8959999999999999] [-0.75:1.657] [-0.72499999999999998:1.714] [-0.75600000000000001:1.623] [-0.93400000000000005:2.044] [-0.98399999999999999:1.6759999999999999] [-0.89800000000000002:1.6950000000000001] [-0.96199999999999997:1.768] [-0.95899999999999996:1.5700000000000001] [-0.67500000000000004:1.798] [-0.98399999999999999:1.8839999999999999] [-0.62:1.6739999999999999] [-0.85599999999999998:1.8340000000000001] [-0.747:1.821] [-0.76500000000000001:1.6399999999999999] [-0.78600000000000003:1.8440000000000001] [-0.93100000000000005:1.698] [-0.80100000000000005:1.7210000000000001] [-0.72499999999999998:1.8859999999999999] [-0.86099999999999999:1.7190000000000001] [-0.78600000000000003:1.7769999999999999] [-0.92300000000000004:1.754] [-0.83499999999999996:1.7949999999999999] [-0.78200000000000003:1.776] [-0.75:1.716] [-0.78400000000000003:1.8879999999999999] [-0.82299999999999995:1.6870000000000001] [-0.61899999999999999:1.915] [-0.93600000000000005:1.7689999999999999] [-0.81599999999999995:1.835] [-0.78300000000000003:1.6739999999999999] [-0.84699999999999998:1.6359999999999999] [-0.86899999999999999:1.909] [-0.97599999999999998:1.821] [-0.879:1.829] [-1.0229999999999999:1.8] [-0.70299999999999996:1.7929999999999999] [-0.89800000000000002:2.0030000000000001] [-0.84099999999999997:1.792] [-0.73899999999999999:1.798] [-0.94999999999999996:1.9390000000000001] [-0.84599999999999997:1.6990000000000001] [-0.67200000000000004:1.804] [-0.72199999999999998:1.7849999999999999] [-0.93300000000000005:1.8759999999999999] [-0.82899999999999996:1.653] [-0.75900000000000001:1.867] [-0.68600000000000005:1.708] [-0.82699999999999996:1.9299999999999999] [-0.747:1.8700000000000001] [-0.71899999999999997:1.7] [-0.89100000000000001:1.601] [-0.76000000000000001:1.927] [-0.70299999999999996:1.7989999999999999] [-0.83599999999999997:1.8140000000000001] [-0.73999999999999999:1.748] [-0.626:1.7070000000000001] [-0.75900000000000001:1.9119999999999999] [-0.749:1.6519999999999999] [-0.73699999999999999:1.8899999999999999] [-0.72399999999999998:2.0529999999999999] [-0.72699999999999998:1.6930000000000001] [-0.86699999999999999:1.8300000000000001] [-0.85999999999999999:1.9339999999999999] [-0.82299999999999995:1.8839999999999999] [-0.79100000000000004:1.8029999999999999] [-0.63300000000000001:1.887] [-1.0940000000000001:1.657] [-0.68100000000000005:1.788] [-0.73799999999999999:1.7809999999999999] [-0.84799999999999998:1.7869999999999999] [-0.755:1.9370000000000001] [-0.81000000000000005:1.7849999999999999] [-0.69399999999999995:1.98] [-0.82899999999999996:1.76] [-0.66300000000000003:1.903] [-0.753:1.7969999999999999] [-0.71399999999999997:1.776] [-1.157:1.8620000000000001] [-0.58899999999999997:1.752] [-0.92500000000000004:1.7050000000000001] [-0.748:1.617] [-0.95199999999999996:1.974] [-0.68400000000000005:1.712] [-0.93500000000000005:1.728] [-0.80000000000000004:1.7330000000000001] [-0.626:1.78] [-1.0149999999999999:2.2210000000000001] [-0.83499999999999996:1.6879999999999999] [-0.67500000000000004:1.6910000000000001] [-0.82199999999999995:1.996] [-0.77100000000000002:1.7070000000000001] [-0.89100000000000001:1.7250000000000001] [-0.92700000000000005:1.859] [-0.69399999999999995:1.8260000000000001] [-0.73199999999999998:1.873] [-0.751:1.8080000000000001] [-0.73599999999999999:1.8] [-0.89700000000000002:2.1760000000000002] [-0.86599999999999999:1.8100000000000001] [-0.95199999999999996:1.9299999999999999] [-1.085:2.109] [-0.66100000000000003:1.7929999999999999] [-0.73399999999999999:1.9930000000000001] [-1.0169999999999999:1.8919999999999999] [-0.95799999999999996:1.6910000000000001] [-0.72799999999999998:1.8740000000000001] [-0.67500000000000004:1.8779999999999999] [-0.86499999999999999:1.837] [-0.879:1.8109999999999999] [-1.0089999999999999:1.5940000000000001] [-0.71999999999999997:1.827] [-1.1519999999999999:1.6719999999999999] [-0.60199999999999998:1.919] [-0.82799999999999996:1.8759999999999999] [-0.97699999999999998:2.1200000000000001] [-0.72899999999999998:1.8720000000000001] [-0.746:1.5620000000000001] [-0.751:2.1160000000000001] [-1.0249999999999999:2.0070000000000001] [-0.874:1.724] [-0.82399999999999995:1.8149999999999999] [-0.76200000000000001:1.929] [-0.76100000000000001:1.72] [-0.98099999999999998:1.952] [-0.82399999999999995:1.8959999999999999] [-0.72599999999999998:1.706] [-0.65700000000000003:1.7569999999999999] [-0.83199999999999996:1.9490000000000001] [-1.1830000000000001:2.0030000000000001] [-0.85899999999999999:1.6599999999999999] [-0.88:2.1699999999999999] [-0.77800000000000002:1.712] [-0.73499999999999999:1.883] [-0.98899999999999999:1.8600000000000001] [-0.75:1.901] [-1.0529999999999999:2.1339999999999999] [-1.0049999999999999:1.7829999999999999] [-0.72999999999999998:1.712] [-0.64800000000000002:1.913] [-0.84499999999999997:1.875] [-1.0069999999999999:1.784] [-0.70999999999999996:1.8939999999999999] [-0.66200000000000003:1.774] [-0.747:1.8979999999999999] [-0.57799999999999996:1.669] [-0.60999999999999999:1.907] [-0.83899999999999997:1.7390000000000001] [-0.96499999999999997:2.0699999999999998] [-0.75700000000000001:1.8959999999999999] [-0.76500000000000001:1.617] [-0.57699999999999996:1.696] [-0.93600000000000005:2.0339999999999998] [-0.82399999999999995:1.7709999999999999] [-0.98699999999999999:1.778] [-1.024:1.7509999999999999] [-0.76000000000000001:2.0379999999999998] [-0.90000000000000002:1.7809999999999999] [-0.92200000000000004:1.78] [-0.70499999999999996:1.7869999999999999] [-0.77200000000000002:1.897] [-0.85099999999999998:1.6950000000000001] [-0.67700000000000005:1.6819999999999999] [-0.81000000000000005:1.6899999999999999] [-0.68899999999999995:1.859] [-0.82299999999999995:1.796] [-0.96099999999999997:1.6870000000000001] [-0.61699999999999999:1.988] [-0.76500000000000001:1.7789999999999999] [-0.81299999999999994:1.899] [-0.625:1.9390000000000001] [-0.67400000000000004:1.7869999999999999] [-0.70899999999999996:1.8959999999999999] [-0.85899999999999999:1.927] [-0.89600000000000002:1.7090000000000001] [-0.83499999999999996:1.9259999999999999] [-0.85599999999999998:1.8939999999999999] [-0.88700000000000001:1.8720000000000001] [-0.85199999999999998:1.9159999999999999] [-0.70399999999999996:1.7949999999999999] [-0.96499999999999997:1.9550000000000001] [-0.67100000000000004:1.756] [-0.871:1.907] [-0.71299999999999997:1.851] [-0.85799999999999998:1.794] [-0.69999999999999996:1.7609999999999999] [-0.75:1.7969999999999999] [-0.73199999999999998:1.792] [-0.86099999999999999:1.8100000000000001] [-0.97499999999999998:1.8260000000000001] [-0.81299999999999994:1.8180000000000001] [-0.91900000000000004:1.8160000000000001] [-0.55800000000000005:1.8160000000000001] [-0.87:1.8700000000000001] [-0.89000000000000001:2.0630000000000002] [-0.80000000000000004:1.782] [-0.81499999999999995:1.7170000000000001] [-0.73199999999999998:1.7070000000000001] [-0.70499999999999996:1.806] [-0.91300000000000003:1.7330000000000001] [-0.73199999999999998:1.8080000000000001] [-0.59599999999999997:1.6910000000000001] [-0.83199999999999996:1.8560000000000001] [-0.69599999999999995:1.7629999999999999] [-0.90500000000000003:1.7370000000000001] [-0.74299999999999999:1.708] [-0.73999999999999999:1.7689999999999999] [-0.754:1.9570000000000001] [-0.70599999999999996:1.762] [-0.88700000000000001:1.752] [-1.131:1.8500000000000001] [-0.71999999999999997:1.925] [-0.81200000000000006:1.6659999999999999] [-1.024:1.9019999999999999] [-1.173:1.6459999999999999] [-0.86399999999999999:1.7490000000000001] [-1.0389999999999999:1.9139999999999999] [-1.0449999999999999:1.8640000000000001] [-0.90300000000000002:1.552] [-0.873:1.8029999999999999] [-0.74299999999999999:2.02] [-0.878:1.8220000000000001] [-0.78100000000000003:1.853] [-0.753:1.7050000000000001] [-0.91100000000000003:1.825] [-0.71299999999999997:1.742] [-0.82999999999999996:1.722] [-0.754:2.1219999999999999] [-1.0549999999999999:1.925] [-0.90000000000000002:2.0569999999999999] [-0.96799999999999997:1.861] [-0.70099999999999996:1.919] [-0.65200000000000002:1.7909999999999999] [-1.1970000000000001:1.7889999999999999] [-0.93000000000000005:1.8580000000000001] [-0.95999999999999996:1.72] [-0.95599999999999996:1.9379999999999999] [-0.73799999999999999:1.786] [-0.72599999999999998:1.74] [-0.97699999999999998:1.774] [-0.79500000000000004:1.696] [-0.93999999999999995:1.8380000000000001] [-0.70399999999999996:1.6899999999999999] [-0.74199999999999999:1.7050000000000001] [-1.03:1.6659999999999999] [-0.81699999999999995:1.772] [-0.74399999999999999:1.851] [-0.77400000000000002:1.8660000000000001] [-0.80000000000000004:1.6850000000000001] [-0.88800000000000001:1.694] [-0.66900000000000004:1.8109999999999999] [-0.67800000000000005:1.8400000000000001] [-0.83499999999999996:1.915] [-0.99199999999999999:1.9279999999999999] [-0.92400000000000004:1.7350000000000001] [-0.93799999999999994:1.7549999999999999] [-0.76200000000000001:1.6990000000000001] [-0.80200000000000005:1.75] [-0.83699999999999997:1.752] [-0.77500000000000002:1.99] [-0.91100000000000003:1.7869999999999999] [-0.85399999999999998:1.7330000000000001] [-0.97799999999999998:1.8819999999999999] [-1.0640000000000001:1.927] [-0.80800000000000005:1.718] [-0.78000000000000003:1.7949999999999999] [-0.84199999999999997:1.8080000000000001] [-0.63900000000000001:1.599] [-0.77000000000000002:1.964] [-0.76400000000000001:2.0449999999999999] [-0.75600000000000001:1.7370000000000001] [-0.82599999999999996:1.923] [-0.74099999999999999:1.8049999999999999] [-0.80600000000000005:1.728] [-0.83299999999999996:1.7789999999999999] [-0.84099999999999997:1.6479999999999999] [-0.65700000000000003:1.853] [-0.64400000000000002:1.7290000000000001] [-0.86899999999999999:1.6459999999999999] [-0.81999999999999995:1.9219999999999999] [-0.65100000000000002:1.883] [-0.753:1.7] [-0.81999999999999995:1.748] [-0.77400000000000002:1.756] [-0.79600000000000004:1.768] [-0.64900000000000002:1.7130000000000001] [-0.97399999999999998:1.768] [-0.92500000000000004:2.052] [-0.67500000000000004:1.861] [-0.877:1.8520000000000001] [-0.72999999999999998:1.6579999999999999] [-1.073:1.669] [-0.752:1.8260000000000001] [-0.90600000000000003:1.673] [-0.627:1.6870000000000001] [-0.96999999999999997:1.829] [-0.76600000000000001:1.6950000000000001] [-0.69099999999999995:1.694] [-0.96799999999999997:1.8380000000000001] [-0.751:1.8859999999999999] [-0.79700000000000004:1.704] [-0.93799999999999994:1.917] [-0.93200000000000005:1.7909999999999999] [-0.88100000000000001:1.9370000000000001] [-0.78500000000000003:1.706] [-0.64700000000000002:1.72] [-0.82399999999999995:1.718] [-0.69299999999999995:1.946] [-0.73599999999999999:1.736]
tree_sizes=14658 15107

Tree=0
num_leaves=139
num_cat=0
split_feature=103 167 870 722 971 575 609 895 681 949 360 307 572 671 204 367 953 326 544 392 27 297 330 330 360 357 120 581 738 508 304 644 374 178 961 475 387 188 273 526 27 638 996 19 818 547 836 301 409 865 636 763 372 143 832 861 950 442 238 534 984 872 406 618 387 787 874 303 744 298 279 983 158 247 710 258 351 551 44 240 183 240 627 780 562 455 934 601 451 300 268 433 195 797 564 723 307 318 572 92 906 10 858 995 718 674 383 377 783 270 880 571 104 838 611 776 172 121 101 518 739 458 530 825 551 835 28 344 91 33 358 112 5 53 261 11 23 2
split_gain=26.9405 25.4796 28.9682 30.6603 21.34 28.5392 21.3269 20.4734 25.0929 20.4338 20.4235 20.3786 20.1112 19.7239 19.2077 18.8603 17.5859 17.3776 17.6509 18.849 17.2343 20.6566 19.5569 21.6749 17.0649 16.7623 16.6552 16.446 16.3047 16.2272 16.0262 17.8065 17.1349 15.9052 18.629 15.9014 15.8606 15.8963 15.7032 19.1927 15.9821 18.9477 16.3752 15.6111 15.5842 15.4667 15.464 15.4538 15.5732 16.7189 15.3888 16.0139 16.4336 15.0893 15.0041 14.8084 15.5154 14.5152 14.5049 14.5377 20.9302 14.4177 14.2651 14.2537 15.0387 14.2472 14.0673 13.965 13.953 13.7746 13.7047 13.6266 13.5429 13.5307 13.3736 13.3112 15.1134 13.0699 12.949 12.8174 16.9096 13.6 12.6935 12.5359 14.2557 12.1135 11.7372 11.7285 11.5932 11.5392 11.4796 11.2432 11.2036 11.03 10.9768 10.7723 10.6513 12.3633 10.3909 10.368 14.381 9.9835 19.495 9.86475 9.42495 8.84207 8.68124 8.55127 8.53481 10.6037 8.51554 9.50624 8.32422 8.24472 8.16664 7.25183 6.77003 6.57982 6.20185 8.10338 6.13124 6.01846 5.95606 5.28505 5.09662 5.02049 4.95043 4.63542 4.0355 4.00468 2.33655 1.98122 1.3156 1.05962 0.96366 0.951564 0.327762 0.189957
threshold=0.70350000000000013 0.54950000000000021 0.59850000000000014 0.17350000000000002 0.45850000000000007 0.83650000000000013 0.26150000000000007 0.23350000000000004 0.19350000000000003 0.26750000000000007 0.71650000000000003 0.66850000000000021 0.44050000000000006 0.57450000000000012 0.10750000000000001 0.35450000000000004 0.13650000000000004 0.27650000000000008 0.23850000000000002 0.73150000000000015 0.70450000000000002 0.75650000000000006 0.22450000000000003 0.75550000000000017 0.52450000000000008 0.26150000000000007 0.14350000000000002 0.69450000000000001 0.46650000000000008 0.8135 0.77850000000000008 0.37450000000000006 0.60250000000000015 0.71650000000000003 0.11950000000000001 0.56850000000000012 0.71450000000000002 0.46850000000000008 0.63350000000000006 0.31350000000000006 0.7965000000000001 0.45750000000000007 0.21050000000000002 0.22250000000000003 0.52850000000000008 0.42050000000000004 0.87350000000000005 0.79050000000000009 0.25750000000000006 0.50650000000000006 0.22550000000000003 0.30950000000000005 0.65950000000000009 0.47150000000000003 0.47650000000000003 0.81250000000000011 0.83650000000000013 0.66850000000000021 0.51350000000000018 0.36150000000000004 0.50150000000000017 0.32350000000000007 0.83850000000000013 0.75150000000000017 0.26950000000000007 0.20950000000000002 0.32150000000000006 0.74050000000000005 0.54550000000000021 0.63650000000000018 0.63250000000000017 0.62550000000000006 0.48050000000000004 0.48450000000000004 0.75650000000000006 0.58750000000000002 0.51250000000000007 0.57850000000000013 0.59450000000000014 0.25550000000000006 0.19150000000000003 0.062500000000000014 0.88350000000000006 0.30950000000000005 0.63050000000000017 0.40650000000000003 0.21250000000000002 0.47750000000000004 0.5675 0.35050000000000003 0.49150000000000005 0.66550000000000009 0.5655 0.90550000000000008 0.9255000000000001 0.73750000000000016 0.70750000000000013 0.49350000000000005 0.19550000000000003 0.34250000000000008 0.5525000000000001 0.70650000000000002 0.58250000000000013 0.56050000000000011 0.48150000000000004 0.33350000000000007 0.53650000000000009 0.30150000000000005 0.41450000000000004 0.51450000000000007 0.83250000000000013 0.16950000000000004 0.16050000000000003 0.26150000000000007 0.47950000000000004 0.88550000000000006 0.61550000000000005 0.69550000000000012 0.31550000000000006 0.48650000000000004 0.58450000000000013 0.7965000000000001 0.75450000000000006 0.32950000000000007 0.81450000000000011 0.76550000000000018 0.42550000000000004 0.42050000000000004 0.29250000000000004 0.79750000000000021 0.16250000000000003 0.23150000000000004 0.60650000000000015 0.82150000000000001 0.26950000000000007 0.24750000000000003 0.22650000000000003 0.34650000000000003
decision_type=2 2 2 2 2 2 2 2 2 2 2 2 2 2 2 2 2 2 2 2 2 2 2 2 2 2 2 2 2 2 2 2 2 2 2 2 2 2 2 2 2 2 2 2 2 2 2 2 2 2 2 2 2 2 2 2 2 2 2 2 2 2 2 2 2 2 2 2 2 2 2 2 2 2 2 2 2 2 2 2 2 2 2 2 2 2 2 2 2 2 2 2 2 2 2 2 2 2 2 2 2 2 2 2 2 2 2 2 2 2 2 2 2 2 2 2 2 2 2 2 2 2 2 2 2 2 2 2 2 2 2 2 2 2 2 2 2 2
left_child=1 4 3 36 5 15 10 8 90 62 12 13 106 27 -15 79 127 26 19 35 21 25 -22 114 -23 28 44 29 -17 30 31 71 -33 34 73 54 95 -38 40 61 42 -42 92 57 -11 66 74 48 -10 78 51 -36 104 85 -19 56 91 87 112 60 -60 -40 83 64 -7 -27 -13 98 -37 -64 -66 -5 -14 -9 82 76 -61 -76 -50 81 -81 -1 113 84 116 -41 -82 -18 -12 -68 -6 120 -20 94 96 105 128 -98 -47 -29 -101 121 -103 -55 -53 -3 -4 117 -67 -110 111 -35 -52 -45 -24 129 -2 -85 119 -113 -16 130 135 -100 134 133 -51 -8 -28 136 -44 -120 -77 -109 -88 -115 -114 -107
right_child=9 2 6 11 7 63 16 33 47 17 88 45 72 14 55 20 43 18 38 -21 22 24 23 -25 -26 65 93 99 -30 -31 -32 32 -34 110 50 68 37 -39 39 53 41 -43 101 46 -46 67 -48 -49 49 126 58 52 -54 103 -56 -57 -58 -59 59 75 -62 -63 69 -65 70 108 89 -69 -70 -71 -72 -73 -74 -75 77 132 -78 -79 -80 80 86 -83 -84 107 -86 -87 124 -89 -90 -91 -92 -93 -94 -95 -96 -97 97 -99 123 100 -102 102 -104 -105 -106 137 -108 125 109 -111 -112 118 115 122 -116 -117 -118 -119 131 -121 -122 -123 -124 -125 -126 -127 -128 -129 -130 -131 -132 -133 -134 -135 -136 -137 -138 -139
leaf_value=-0.62503796416431312 -0.55685828831886386 -0.56043750094778344 -0.5351087551374748 -0.6829044344812718 -0.29099249440392949 -0.58924333880315005 -0.58393200728418382 -0.38234655927201633 -0.39499737339155799 -0.3803135051731053 -0.2895362263806554 -0.39469874854078063 -0.54673851629259684 -0.59545834619320204 -0.28701688668682401 -0.38000660583030677 -0.44083169103473868 -0.47579866466052723 -0.41548788832264022 -0.59037870245226209 -0.59924506294485735 -0.36212200549410745 -0.27368955223933772 -0.55243128526451857 -0.54979852957994058 -0.48611410086674472 -0.61816753610558806 -0.69819123389528204 -0.57870477300266787 -0.37406972039010233 -0.65720605249600628 -0.52228770731128138 -0.32929912058419869 -0.54979852957994058 -0.38349736587875138 -0.63522230290905324 -0.35609016393287496 -0.58393200728418382 -0.5351087551374748 -0.57249785062613912 -0.38285700055333355 -0.58531263106337195 -0.62503796416431312 -0.55999951960861072 -0.59580703820906644 -0.46273005913103943 -0.45686671035909654 -0.64790179749316201 -0.38349736587875138 -0.6978529289598383 -0.54506680917405481 -0.53160896982718853 -0.42118783346182037 -0.67116914219432977 -0.30196822132313988 -0.54506680917405481 -0.54113562448468211 -0.35005441224228873 -0.34734416758947012 -0.62771666321233677 -0.57304057713606404 -0.33701910222308296 -0.41979691646897094 -0.32366147928474148 -0.49947853931668978 -0.69281301781807847 -0.65090341597978185 -0.48591017705333844 -0.44538619611562225 -0.61954118983832474 -0.32525794107283434 -0.48611410086674472 -0.33981574655063862 -0.57249785062613912 -0.43276984453366896 -0.69839183385810411 -0.43306035334852572 -0.60410241920139907 -0.57699760922341348 -0.47997998325912955 -0.53325968716858596 -0.44819949509313584 -0.49298084052565333 -0.64902967681312929 -0.47662230266932148 -0.38349736587875138 -0.64902967681312917 -0.63275525943089295 -0.47285066398719 -0.47480356995338563 -0.48628550299076578 -0.45999463749545882 -0.60020642466642016 -0.4993775377462995 -0.50255992037300212 -0.4993775377462995 -0.67089148682686894 -0.49212035609735405 -0.39119055652234003 -0.62644192835361145 -0.44375822287990441 -0.65364836886152322 -0.44859129689825145 -0.52035170918737883 -0.69819123389528204 -0.66530409419536563 -0.69819123389528204 -0.69981061888005436 -0.49349879736570323 -0.66208557583249716 -0.54039524540951767 -0.68157851157760196 -0.6653040941953654 -0.64902967681312917 -0.41507292822712488 -0.55681673755541061 -0.68675227323968102 -0.50255992037300212 -0.63275525943089284 -0.51883433775523846 -0.40245805682151081 -0.56765758990194748 -0.58601409627311241 -0.2791980682772629 -0.58393200728418382 -0.60138371164137461 -0.57509344651082972 -0.69127436003423692 -0.69974928506856382 -0.60020642466642016 -0.69491784088285491 -0.69975596267091811 -0.63275525943089295 -0.64902967681312929 -0.69955929658543115 -0.69952480247013227 -0.69962093087688026 -0.69855939524514987
leaf_weight=6.7420687824487713 7.6720093041658464 9.2994052171707207 6.0446133911609667 6.509583652019499 6.0446133911609632 8.1369795650243777 6.0446133911609676 9.0669200867414457 8.1369795650243741 6.509583652019499 6.509583652019499 9.7643754780292529 6.509583652019499 7.6720093041658393 13.484137564897543 7.4395241737365749 6.5095836520195025 9.7643754780292529 6.9745539128780347 11.85674165189266 6.9745539128780392 9.9968606084585208 7.9044944345951142 7.4395241737365714 9.2994052171707136 7.4395241737365714 8.6019498258829135 6.9745539128780392 9.0669200867414457 8.8344349563121778 7.2070390433073035 9.531890347599985 8.8344349563121778 9.2994052171707136 7.207039043307307 6.2770985215902355 6.0446133911609632 6.044613391160965 6.0446133911609641 6.2770985215902346 8.1369795650243777 10.461830869317053 6.7420687824487713 10.694315999746321 6.7420687824487686 6.2770985215902355 10.229345738887785 11.624256521463392 7.2070390433073062 6.0446133911609632 8.369464695453642 6.5095836520195025 6.0446133911609641 10.694315999746324 10.229345738887785 8.369464695453642 6.277098521590232 6.5095836520194998 6.7420687824487713 8.3694646954536456 10.229345738887785 9.2994052171707136 7.4395241737365705 7.9044944345951071 10.926801130175592 15.111533477902414 6.277098521590232 10.229345738887785 9.7643754780292493 6.2770985215902328 7.6720093041658393 7.4395241737365723 6.044613391160965 6.277098521590232 9.2994052171707171 7.6720093041658384 7.4395241737365714 8.369464695453642 6.5095836520195007 8.1369795650243741 8.369464695453642 11.85674165189266 7.2070390433073035 6.0446133911609632 10.694315999746321 7.2070390433073044 6.0446133911609712 6.044613391160965 7.4395241737365723 8.8344349563121778 6.044613391160965 9.5318903475999814 6.044613391160965 7.4395241737365714 6.0446133911609641 7.4395241737365714 7.2070390433073035 8.1369795650243741 6.7420687824487713 10.926801130175592 6.9745539128780356 10.926801130175592 7.9044944345951071 7.2070390433073035 6.9745539128780365 6.0446133911609641 6.9745539128780365 25.573364347219471 6.7420687824487677 8.1369795650243741 9.9968606084585172 6.0446133911609632 6.0446133911609712 6.0446133911609712 9.0669200867414457 6.277098521590232 8.369464695453642 6.044613391160965 6.0446133911609676 6.044613391160965 7.6720093041658393 6.0446133911609641 7.9044944345951071 14.181592956185339 6.0446133911609641 8.1369795650243741 7.2070390433073044 12.554197043180464 23.248513042926788 6.0446133911609641 20.923661738634109 23.480998173356056 6.044613391160965 6.0446133911609641 18.133840173482895 17.436384782195091 19.528750956058502 8.369464695453642
leaf_count=29 33 40 26 28 26 35 26 39 35 28 28 42 28 33 58 32 28 42 30 51 30 43 34 32 40 32 37 30 39 38 31 41 38 40 31 27 26 26 26 27 35 45 29 46 29 27 44 50 31 26 36 28 26 46 44 36 27 28 29 36 44 40 32 34 47 65 27 44 42 27 33 32 26 27 40 33 32 36 28 35 36 51 31 26 46 31 26 26 32 38 26 41 26 32 26 32 31 35 29 47 30 47 34 31 30 26 30 110 29 35 43 26 26 26 39 27 36 26 26 26 33 26 34 61 26 35 31 54 100 26 90 101 26 26 78 75 84 36
internal_value=0 0.106695 0.295976 0.519418 -0.0525219 0.187909 -0.0396436 -0.245743 0.271271 -0.224863 0.593058 0.693527 0.0606782 0.461951 0.925956 0.0190729 -0.257702 -0.0776957 0.0909674 0.609744 0.28223 0.016204 0.900936 1.3217 0.901438 -0.301578 -0.485135 0.125296 0.53572 0.464898 0.189247 0.490377 1.13478 -0.401152 -0.209281 0.968952 -0.239583 0.728666 -0.0991721 0.365178 -0.357129 0.459254 -0.589074 -0.085208 0.527545 1.16124 -0.285461 -0.0619034 0.269389 -0.0978313 -0.342611 0.324922 -0.146883 -0.0836447 1.56176 1.17327 1.44456 0.722832 -0.53515 -0.140165 0.595211 1.27782 -0.627291 1.01379 0.660295 -0.671265 0.546958 1.56694 0.224993 0.311819 1.15449 -0.360121 0.959884 0.824571 -0.460587 -0.563443 0.0628183 0.284662 0.673702 -0.402141 -0.681171 0.298816 -0.727787 -0.791406 -0.234033 0.712297 -0.957056 0.0906073 1.56171 -0.0590116 1.54906 1.73669 0.412469 -0.706799 -0.86603 -0.616451 -1.02833 -0.340929 1.94076 -0.534083 -0.128298 -0.837556 -0.2525 -0.683811 -0.760009 -0.944882 -0.807121 -1.07784 -0.977969 -0.435942 -0.824865 -0.990247 -0.930961 -0.937552 1.94249 -1.12983 -0.828195 -0.33785 -1.19407 -0.583969 2.14259 -1.16267 -1.19527 2.27891 -1.24642 -1.30145 -0.8955 -1.14513 -1.35738 -1.32421 -1.35963 -1.44106 -1.28047 -1.48185 -1.45134 -1.44749 -1.49736 -1.43273
internal_weight=0 845.316 386.158 231.788 459.158 204.587 154.37 254.571 58.8187 345.008 39.5225 188.545 25.5734 126.239 53.0066 169.947 114.848 252.711 178.781 47.8919 104.618 73.2328 31.3855 24.4109 19.2963 53.9366 73.9303 73.2328 16.5064 48.3569 39.5225 32.3154 18.3663 195.752 134.841 36.0352 43.2422 12.0892 130.889 46.7295 84.1596 18.5988 65.5608 96.2488 13.2517 62.306 77.1851 46.7295 35.1053 26.9683 119.497 26.7358 19.5288 31.3855 19.9937 45.3346 36.9651 19.0638 92.7616 46.497 16.9714 15.344 92.2966 34.6403 26.7358 37.4301 24.8759 37.4301 16.0415 13.7166 18.5988 13.9491 12.5542 15.344 66.9557 29.5256 15.809 17.6689 13.7166 65.3283 46.7295 18.5988 49.2868 78.58 26.7358 13.4841 38.5925 12.5542 13.9491 15.1115 12.0892 30.688 13.0192 60.6786 53.2391 31.153 47.1945 15.344 27.2008 24.8759 17.9014 52.5416 18.8313 17.9014 13.4841 23.7135 13.0192 51.8442 29.9906 14.879 60.9111 50.9142 46.2645 42.0798 16.9714 37.8951 16.0415 12.0892 41.6148 12.0892 21.1561 33.7103 31.3855 20.9237 30.2231 39.755 13.2517 18.5988 31.8505 31.618 27.6657 29.5256 13.7166 31.618 24.1785 23.481 25.5734 14.4141
internal_count=5120 3636 1661 997 1975 880 664 1095 253 1484 170 811 110 543 228 731 494 1087 769 206 450 315 135 105 83 232 318 315 71 208 170 139 79 842 580 155 186 52 563 201 362 80 282 414 57 268 332 201 151 116 514 115 84 135 86 195 159 82 399 200 73 66 397 149 115 161 107 161 69 59 80 60 54 66 288 127 68 76 59 281 201 80 212 338 115 58 166 54 60 65 52 132 56 261 229 134 203 66 117 107 77 226 81 77 58 102 56 223 129 64 262 219 199 181 73 163 69 52 179 52 91 145 135 90 130 171 57 80 137 136 119 127 59 136 104 101 110 62
shrinkage=1


Tree=1
num_leaves=143
num_cat=0
split_feature=988 896 336 636 412 496 632 624 81 506 678 321 961 533 422 4 876 222 616 921 953 536 867 794 142 66 455 90 399 913 151 791 825 871 360 685 484 542 141 310 926 751 248 242 391 71 210 192 191 872 949 56 422 401 384 458 651 964 499 483 298 326 420 797 322 392 288 756 473 349 773 250 624 534 554 727 593 465 674 336 858 415 888 480 302 284 330 999 239 552 920 38 336 392 935 218 81 966 765 725 879 680 217 759 146 245 113 857 146 145 536 42 79 448 981 930 947 219 41 126 550 41 31 687 544 807 210 401 898 328 907 901 817 854 362 860 15 377 631 631 156 20
split_gain=25.5756 21.6449 21.1529 24.8292 26.8029 19.4695 17.6837 19.2566 19.7083 18.8783 24.2293 17.1657 17.0244 17.0021 17.5897 20.3684 17.7021 16.2722 16.2563 18.1087 16.3013 17.1003 16.2228 15.8525 16.578 15.7921 16.8589 16.9269 15.6468 16.7244 15.7241 15.6249 15.4266 15.0459 15.4944 15.0987 14.9215 16.9296 14.9011 14.6283 14.6086 15.5404 16.4752 14.606 22.1365 14.5682 14.4936 14.4845 17.1423 14.3349 14.2929 14.0984 15.2191 13.8599 14.5651 13.6808 13.4309 13.2024 13.0802 12.9841 12.865 13.6104 12.5784 13.7936 12.5663 13.264 12.508 12.3569 12.2726 12.2698 12.0755 13.7835 11.896 17.8346 14.5239 12.2719 12.8451 14.8396 14.3866 11.8424 11.6364 12.4363 11.7972 11.4414 11.3328 11.0823 10.9989 10.9422 10.8909 10.5581 10.5008 10.4544 10.3894 10.2526 10.1978 9.91627 9.8114 9.80088 9.77085 9.68404 14.5076 9.61899 9.54055 9.43618 9.41633 9.40849 10.2266 9.25335 8.51227 8.38846 13.5465 8.38188 8.36131 8.34314 7.69695 6.73273 6.695 6.37712 6.34558 11.2121 5.85634 5.80261 5.55147 5.44227 5.42221 5.12339 5.10897 4.33341 3.8254 3.58009 3.49565 3.13221 1.75203 1.401 1.14771 0.906431 0.703116 0.670313 0.653879 0.643649 0.319836 0.124904
threshold=0.36150000000000004 0.9405 0.16850000000000004 0.34750000000000003 0.73450000000000004 0.49250000000000005 0.74750000000000016 0.5545000000000001 0.88850000000000018 0.69750000000000012 0.34250000000000008 0.46550000000000008 0.45150000000000007 0.92450000000000021 0.37150000000000005 0.077500000000000013 0.83150000000000002 0.33450000000000008 0.35350000000000004 0.23350000000000004 0.39650000000000007 0.60550000000000004 0.33850000000000008 0.065500000000000017 0.50950000000000017 0.46750000000000008 0.36950000000000005 0.30450000000000005 0.067500000000000018 0.78250000000000008 0.21250000000000002 0.85050000000000014 0.058500000000000003 0.87250000000000016 0.52850000000000008 0.89450000000000018 0.60450000000000015 0.70750000000000013 0.87550000000000006 0.15450000000000003 0.40150000000000008 0.6625000000000002 0.64050000000000018 0.41250000000000003 0.58650000000000013 0.76350000000000018 0.39450000000000007 0.42950000000000005 0.18850000000000003 0.25850000000000006 0.5485000000000001 0.07350000000000001 0.97850000000000004 0.23050000000000004 0.5375000000000002 0.48950000000000005 0.18750000000000003 0.6695000000000001 0.62850000000000017 0.76150000000000018 0.59350000000000003 0.42650000000000005 0.46450000000000008 0.38650000000000007 0.33750000000000008 0.58650000000000013 0.95550000000000013 0.5525000000000001 0.43150000000000005 0.62550000000000006 0.20350000000000004 0.24250000000000002 0.87550000000000006 0.47750000000000004 0.36750000000000005 0.55650000000000011 0.31850000000000006 0.61850000000000016 0.70450000000000002 0.54750000000000021 0.24450000000000002 0.49050000000000005 0.86250000000000016 0.53150000000000019 0.44850000000000007 0.50250000000000006 0.75950000000000017 0.95650000000000002 0.64050000000000018 0.60250000000000015 0.52950000000000019 0.61050000000000015 0.48150000000000004 0.58150000000000002 0.5335000000000002 0.45750000000000007 0.23450000000000001 0.51850000000000007 0.45450000000000007 0.61850000000000016 0.75350000000000017 0.26450000000000007 0.55550000000000022 0.060500000000000005 0.43450000000000005 0.62350000000000005 0.29650000000000004 0.44950000000000007 0.41050000000000003 0.50750000000000017 0.56950000000000001 0.12550000000000003 0.086500000000000007 0.41650000000000004 0.14150000000000001 0.51850000000000007 0.26850000000000007 0.27750000000000008 0.40750000000000003 0.37850000000000006 0.85650000000000015 0.6885 0.14050000000000004 0.61350000000000005 0.45250000000000007 0.64050000000000018 0.42750000000000005 0.73750000000000016 0.84050000000000014 0.46450000000000008 0.33450000000000008 0.25450000000000006 0.76450000000000007 0.49550000000000005 0.89950000000000008 0.75450000000000006 0.36150000000000004 0.49150000000000005 0.50750000000000017 0.63750000000000007 0.65750000000000008 0.44950000000000007
decision_type=2 2 2 2 2 2 2 2 2 2 2 2 2 2 2 2 2 2 2 2 2 2 2 2 2 2 2 2 2 2 2 2 2 2 2 2 2 2 2 2 2 2 2 2 2 2 2 2 2 2 2 2 2 2 2 2 2 2 2 2 2 2 2 2 2 2 2 2 2 2 2 2 2 2 2 2 2 2 2 2 2 2 2 2 2 2 2 2 2 2 2 2 2 2 2 2 2 2 2 2 2 2 2 2 2 2 2 2 2 2 2 2 2 2 2 2 2 2 2 2 2 2 2 2 2 2 2 2 2 2 2 2 2 2 2 2 2 2 2 2 2 2
left_child=2 6 38 4 5 40 7 8 12 18 17 58 28 14 25 108 33 -11 19 -8 -21 92 93 24 -9 99 97 -28 -2 30 69 45 -20 34 35 62 37 50 80 49 95 42 115 44 57 70 -13 114 83 -14 -36 84 72 -6 124 -51 -45 -34 -10 125 96 -62 63 -17 129 -66 87 -47 -56 -30 -32 -72 75 74 -74 103 77 104 116 -76 81 -1 105 -49 -25 -29 121 111 -48 139 -65 137 -22 -7 -91 -4 -50 -27 -38 100 107 -58 -87 -53 -77 127 -107 -5 -16 138 -111 -3 -105 -15 -41 -42 -78 -98 119 -116 130 -31 -114 141 -55 -18 -43 -82 134 -12 -113 -103 -118 -115 -124 -120 -101 -64 -75 -24 -119 -73
right_child=1 66 3 13 53 22 9 23 11 10 64 46 39 113 15 16 59 -19 32 20 21 -23 89 51 -26 26 27 85 29 86 31 -33 43 -35 36 -37 98 -39 -40 47 41 126 -44 56 -46 67 88 48 60 55 -52 52 -54 54 68 -57 101 -59 -60 -61 61 -63 91 90 65 -67 -68 -69 -70 -71 71 123 73 109 79 76 78 -79 -80 -81 82 -83 -84 -85 -86 102 -88 -89 -90 94 -92 -93 -94 -95 -96 -97 117 -99 -100 136 -102 131 -104 112 -106 106 -108 -109 -110 110 -112 120 122 133 118 -117 132 140 135 -121 -122 -123 128 -125 -126 -127 -128 -129 -130 -131 -132 -133 -134 -135 -136 -137 -138 -139 -140 -141 -142 -143
leaf_value=0.1074393465294804 -0.093023285274312459 -0.017579836337612776 0.0394449925282934 0.0089106812412248337 0.1065446481548194 0.13080948924875499 0.15784370820849136 0.13647976700333331 -0.075125783212513716 -0.15231154380294545 0.25820427426086828 -0.0076701774815255133 -0.091366847823818237 0.004843055366674817 0.23711736083041762 -0.034958104820507846 -0.15549311276085562 0.049687261064432366 0.10948080304546295 -0.1010863471071833 0.20408820606966618 -0.072205373329011044 0.26151703064490794 -0.058510431338151175 -0.045743692740456213 0.026207958880504617 0.1909504996701166 0.11270599952384344 -0.10385022068889781 -0.034708251670469224 0.016492418679468157 -0.027019744283145415 -0.12713278400635247 -0.059416671937848234 -0.099241981368848889 -0.046069302753498867 -0.14172106768444473 0.18535951101116385 0.082653770856751407 0.0049488465061335966 -0.076414599042659792 -0.011899481219233369 0.19535074717118586 0.02245250323932774 0.12779077125220639 0.10760099489312425 0.23861669702042587 -0.0073382635169054874 0.022933035728636458 -0.016892079052702229 0.098637162801485545 0.015211317390597313 0.093013078470633559 -0.039000540462703431 0.13977902865221567 0.15901153246269667 -0.011878330806806503 0.049096409805778105 0.089647883485761526 0.061384489998803984 -0.070544669691068859 0.091722825849249984 0.26358073657265108 0.22367338610486198 0.14768420387474102 -0.015353752472512895 0.067994242153043588 -0.089867518815864189 -0.04524427353988901 0.074167407013657954 0.036099161362184294 0.21651366903030717 0.15601986973355012 -0.15499187893543276 -0.087731719667429778 0.051592025468641105 -0.033626389023099619 0.15076735536877406 0.031178365673047242 0.083845774035708961 -0.15010329056300292 -0.06090041761781987 0.043167045860300651 0.18237568073919175 0.11797308236638913 -0.12153197699666705 0.071479085866541101 0.041665144796081507 0.067548971091677457 0.19232636536794184 0.043248816212365912 0.084060647642721475 0.038139192225204142 -0.032206786145454969 0.02550218324989962 0.20825484015866655 -0.024911358607349211 -0.1320537665475216 0.018919668601085966 -0.10430699507793867 0.10408688361698562 -0.072577091697559215 0.050925271544817158 -0.01254905010991722 -0.12225453743267674 0.067862154563963203 -0.093736745652410955 -0.14244666724773322 0.071976632923314576 0.07415562234208338 -0.12391624220499478 -0.086350219015847787 -0.054862280189755946 -0.087077155807656736 0.038266804584094226 0.071696579670647201 -0.15694768910919232 -0.15555895120160901 -0.15513028570964782 -0.13977471088327517 -0.026975863281096676 -0.15462052919583469 -0.15549660187974479 0.13852303789004825 -0.1548523334258487 -0.038972140700537922 -0.13882488676162666 -0.063568272267771966 -0.066067125682200842 0.14497681905607437 -0.15494129323593087 -0.15610479188531459 -0.090740134938827904 -0.1552665030851795 -0.10510664511336572 -0.10617526013830465 -0.15449052163438456 0.20119934683927659 -0.10461230234302264 0.20448597159493065 -0.12015925226508227 0.26256212750345226
leaf_weight=8.8936752825975436 11.058266848325728 10.655459746718405 6.5115689933300001 7.1671106219291749 8.4933930337429029 8.1779882460832578 11.228090539574621 10.051754564046862 11.054601401090624 6.1435190886259106 6.1202551871538144 6.0010135769844082 6.4003693908453014 7.9089308977127102 6.65555591881275 8.2529868036508578 8.5224893540143984 10.948963224887846 7.4188317805528632 9.1812481135129946 7.0438526123762157 6.972567453980445 9.1523672044277209 6.0278379619121543 9.7494678944349271 6.9804298728704444 7.8280848115682629 7.6654718369245556 9.655256047844885 9.7065245807170921 6.9033835083246222 11.37584215402603 10.16445048153401 11.909613147377966 7.1343465596437472 6.2594880014657965 7.7993900924921018 7.4654911607503882 10.376599445939062 6.7181969732046118 6.0459854602813774 6.2106045782566053 6.3610314875841132 10.442960828542708 10.71699784696102 6.3039243966341001 9.9046671539545041 6.5364350825548154 6.5250692069530514 7.8354367017745998 7.267814502120018 6.2782978415489188 6.7139992862939826 7.6178839206695619 6.2974539846181861 9.9956438541412336 8.1336106657981855 7.183766469359397 8.3805258125066739 6.7554670423269263 9.5705273002386111 11.009196266531942 6.0720422714948672 6.1388502866029722 10.972048506140711 9.0525558590888959 6.0848740041255942 6.1741286814212799 8.0742919445037824 6.3292762190103522 6.569785580039027 6.2135737687349337 7.7798289060592678 6.6928314268589038 8.7439214736223239 6.0864890366792697 8.8063952773809451 6.3469677716493598 9.9631588011980039 7.2802268266677848 19.464868426322941 8.4791680127382261 7.8883825540542594 6.0751255601644516 8.8994911909103376 6.5738077163696271 6.0390829145908347 6.3424607664346686 6.0919214338064185 8.4238585382699949 6.8034309148788452 7.7212879955768576 8.1158065497875196 7.1654561758041373 6.4881208688020697 7.5168165862560272 6.0113023966550854 8.7237697392702085 7.2318579256534576 6.148748576641081 6.0379290282726279 6.1532665193080929 6.0953757464885712 7.4580677151679984 6.1944378018379211 6.5331588685512569 9.4778681695461255 9.1221384257078153 6.0314839482307434 7.2272633612155897 6.4335316121578217 11.494649916887282 9.7172675877809507 6.1168274581432325 6.5318779945373517 6.0306630879640579 14.789961725473406 11.963689789175989 17.41725413501263 7.5271343290805817 6.1927914917469016 6.90345874428749 38.233775854110718 8.9292497187852842 8.7197109013795835 6.8650958687067023 6.4242475181818008 8.5365429371595365 6.6680289953947058 6.1274565905332565 23.774235516786575 19.762209042906761 6.2036615908145896 7.1409049779176712 6.1711462885141364 6.1922505050897589 7.8177826702594757 6.2000404447317123 6.153406634926796 6.1738023459911338 6.3396009653806678 7.022889569401741
leaf_count=38 48 46 28 31 36 35 48 43 48 27 26 26 28 34 28 36 37 47 32 40 30 30 39 26 42 30 33 33 42 42 30 49 44 51 31 27 34 32 45 29 26 27 27 45 46 27 42 28 28 34 31 27 29 33 27 43 35 31 36 29 42 47 26 26 47 39 26 27 35 27 28 26 33 29 38 26 38 27 43 31 85 37 34 26 38 29 26 27 26 36 29 33 35 31 28 32 26 38 31 27 26 27 26 32 27 28 41 40 26 31 28 50 42 27 28 26 64 52 76 33 27 30 167 38 38 30 28 37 29 26 104 86 27 31 27 27 34 26 27 26 28 30
internal_value=0 -0.123075 0.180588 0.283161 0.63317 0.931573 -0.0704831 -0.164299 0.00912384 0.206692 0.728115 0.645516 -0.100129 0.0873702 0.173094 0.398629 0.268887 -0.233804 -0.00382273 0.49494 0.102642 0.567034 1.39198 -0.382859 0.469799 -0.19576 0.207851 0.669966 0.192224 0.319537 0.54555 0.781867 -0.269416 0.454319 0.602891 0.98025 0.116309 0.642365 -0.285749 -0.340732 0.464213 0.0806001 0.664631 -0.41022 0.154436 1.03064 1.24844 -0.497665 -0.1928 0.360587 0.00606077 -0.465459 -0.53902 -0.0577019 -0.370785 0.820518 -0.765947 -0.542945 -0.0397934 -0.535611 -0.449139 0.162847 1.19982 0.658374 1.23673 0.742693 -0.676032 0.0995609 0.362354 -0.33339 1.35545 1.63989 -0.593331 -0.178721 0.448594 -0.750014 -0.405709 0.278538 -0.726153 -0.0974263 -0.453311 0.253994 -0.690101 0.847648 0.467918 0.18578 -0.432734 -0.818092 1.74294 1.81617 1.29888 1.76768 1.16079 0.549646 1.20395 1.30732 -0.856732 -0.619866 -0.648191 -0.682821 -0.272005 -1.0695 -0.388106 -1.01887 -0.363745 -0.89168 -0.277858 -0.762029 1.59785 -0.741635 -0.193487 -0.968865 -1.12666 -0.764965 -0.936031 -0.0247157 -1.07305 -1.14793 -1.11146 -0.573698 -1.17177 -0.851734 -1.24908 2.01563 -1.01399 -1.04095 -0.770186 -1.24042 -1.38101 2.0319 -1.32894 -1.36628 -1.37906 -1.24693 -1.48746 -1.42792 -1.33296 2.33946 -1.31854 2.40018 -1.44017 2.42731
internal_weight=0 744.365 441.95 362.299 129.885 90.6825 679.82 507.938 283.266 171.882 49.3648 41.4327 241.834 232.414 211.247 131.087 118.4 17.0925 122.518 42.5416 31.3135 22.1322 45.5816 224.671 19.8012 80.1606 43.8669 28.1627 109.185 98.1264 75.4773 59.4928 79.9761 96.2566 84.347 47.4481 36.8989 21.8677 79.6503 132.649 45.1009 31.0725 18.4377 72.5573 28.0652 48.1169 21.9976 108.418 64.0309 24.2314 14.4022 204.87 189.943 39.2027 30.7093 17.8311 44.492 17.3482 19.4351 22.1431 51.4194 20.5797 41.1886 21.1953 32.2723 20.0246 64.5445 12.4781 14.3717 15.9845 35.6389 28.7355 183.229 50.311 23.804 132.918 58.3911 18.6279 39.7632 16.0241 69.2737 17.3728 51.9008 12.6116 14.9273 20.3347 22.6491 58.4596 15.9966 30.2381 12.9423 19.9934 15.1597 15.3434 14.912 14.0284 30.8397 15.7042 15.0312 36.2937 22.3272 34.0491 12.6692 74.5266 12.2809 44.0124 16.011 16.2892 12.687 26.507 13.6608 52.1171 68.2483 21.1667 44.3867 12.0766 29.8 24.3146 37.6685 14.059 41.4617 16.61 60.7902 22.1657 16.3376 15.3876 12.6349 28.0014 51.073 12.2477 35.2689 25.9155 20.9936 13.2577 44.4049 23.6095 13.9665 12.2721 12.8462 15.3262 18.3033 13.2365
internal_count=5120 3215 1905 1560 558 389 2935 2194 1223 741 212 178 1045 1002 910 563 509 74 529 183 135 95 195 971 85 347 189 121 470 422 324 255 346 413 362 203 159 94 345 575 194 134 79 314 121 206 94 470 277 105 62 886 822 169 133 77 193 75 84 96 223 89 176 91 138 86 280 54 62 69 152 122 793 217 102 576 252 80 172 69 300 75 225 54 64 88 98 254 68 129 55 85 65 66 64 60 134 68 65 158 97 148 55 324 53 191 69 71 54 115 59 227 297 92 193 52 129 106 164 61 181 72 265 94 71 67 55 122 223 52 154 113 91 58 194 103 61 52 56 65 80 56
shrinkage=0.1


end of trees

feature importances:
Column_330=3
Column_336=3
Column_360=3
Column_392=3
Column_27=2
Column_41=2
Column_81=2
Column_146=2
Column_210=2
Column_240=2
Column_298=2
Column_307=2
Column_326=2
Column_377=2
Column_387=2
Column_401=2
Column_422=2
Column_455=2
Column_458=2
Column_534=2
Column_536=2
Column_544=2
Column_551=2
Column_572=2
Column_624=2
Column_631=2
Column_636=2
Column_674=2
Column_797=2
Column_825=2
Column_858=2
Column_872=2
Column_949=2
Column_953=2
Column_961=2
Column_2=1
Column_4=1
Column_5=1
Column_10=1
Column_11=1
Column_15=1
Column_19=1
Column_20=1
Column_23=1
Column_28=1
Column_31=1
Column_33=1
Column_38=1
Column_42=1
Column_44=1
Column_53=1
Column_56=1
Column_66=1
Column_71=1
Column_79=1
Column_90=1
Column_91=1
Column_92=1
Column_101=1
Column_103=1
Column_104=1
Column_112=1
Column_113=1
Column_120=1
Column_121=1
Column_126=1
Column_141=1
Column_142=1
Column_143=1
Column_145=1
Column_151=1
Column_156=1
Column_158=1
Column_167=1
Column_172=1
Column_178=1
Column_183=1
Column_188=1
Column_191=1
Column_192=1
Column_195=1
Column_204=1
Column_217=1
Column_218=1
Column_219=1
Column_222=1
Column_238=1
Column_239=1
Column_242=1
Column_245=1
Column_247=1
Column_248=1
Column_250=1
Column_258=1
Column_261=1
Column_268=1
Column_270=1
Column_273=1
Column_279=1
Column_284=1
Column_288=1
Column_297=1
Column_300=1
Column_301=1
Column_302=1
Column_303=1
Column_304=1
Column_310=1
Column_318=1
Column_321=1
Column_322=1
Column_328=1
Column_344=1
Column_349=1
Column_351=1
Column_357=1
Column_358=1
Column_362=1
Column_367=1
Column_372=1
Column_374=1
Column_383=1
Column_384=1
Column_391=1
Column_399=1
Column_406=1
Column_409=1
Column_412=1
Column_415=1
Column_420=1
Column_433=1
Column_442=1
Column_448=1
Column_451=1
Column_465=1
Column_473=1
Column_475=1
Column_480=1
Column_483=1
Column_484=1
Column_496=1
Column_499=1
Column_506=1
Column_508=1
Column_518=1
Column_526=1
Column_530=1
Column_533=1
Column_542=1
Column_547=1
Column_550=1
Column_552=1
Column_554=1
Column_562=1
Column_564=1
Column_571=1
Column_575=1
Column_581=1
Column_593=1
Column_601=1
Column_609=1
Column_611=1
Column_616=1
Column_618=1
Column_627=1
Column_632=1
Column_638=1
Column_644=1
Column_651=1
Column_671=1
Column_678=1
Column_680=1
Column_681=1
Column_685=1
Column_687=1
Column_710=1
Column_718=1
Column_722=1
Column_723=1
Column_725=1
Column_727=1
Column_738=1
Column_739=1
Column_744=1
Column_751=1
Column_756=1
Column_759=1
Column_763=1
Column_765=1
Column_773=1
Column_776=1
Column_780=1
Column_783=1
Column_787=1
Column_791=1
Column_794=1
Column_807=1
Column_817=1
Column_818=1
Column_832=1
Column_835=1
Column_836=1
Column_838=1
Column_854=1
Column_857=1
Column_860=1
Column_861=1
Column_865=1
Column_867=1
Column_870=1
Column_871=1
Column_874=1
Column_876=1
Column_879=1
Column_880=1
Column_888=1
Column_895=1
Column_896=1
Column_898=1
Column_901=1
Column_906=1
Column_907=1
Column_913=1
Column_920=1
Column_921=1
Column_926=1
Column_930=1
Column_934=1
Column_935=1
Column_947=1
Column_950=1
Column_964=1
Column_966=1
Column_971=1
Column_981=1
Column_983=1
Column_984=1
Column_988=1
Column_995=1
Column_996=1
Column_999=1

parameters:
[boosting: gbdt]
[objective: binary]
[metric: binary_logloss,auc]
[tree_learner: serial]
[device_type: cpu]
[data: ]
[valid: ]
[num_iterations: 100]
[learning_rate: 0.1]
[num_leaves: 500]
[num_threads: -1]
[max_depth: -1]
[min_data_in_leaf: 10]
[min_sum_hessian_in_leaf: 6]
[bagging_fraction: 0.8]
[pos_bagging_fraction: 1]
[neg_bagging_fraction: 1]
[bagging_freq: 1]
[bagging_seed: 11]
[feature_fraction: 0.9]
[feature_fraction_bynode: 1]
[feature_fraction_seed: 30056]
[early_stopping_round: 0]
[first_metric_only: 0]
[max_delta_step: 0]
[lambda_l1: 0]
[lambda_l2: 0.1]
[min_gain_to_split: 0]
[drop_rate: 0.1]
[max_drop: 50]
[skip_drop: 0.5]
[xgboost_dart_mode: 0]
[uniform_drop: 0]
[drop_seed: 17869]
[top_rate: 0.2]
[other_rate: 0.1]
[min_data_per_group: 100]
[max_cat_threshold: 32]
[cat_l2: 10]
[cat_smooth: 10]
[max_cat_to_onehot: 4]
[top_k: 20]
[monotone_constraints: ]
[feature_contri: ]
[forcedsplits_filename: ]
[forcedbins_filename: ]
[refit_decay_rate: 0.9]
[cegb_tradeoff: 1]
[cegb_penalty_split: 0]
[cegb_penalty_feature_lazy: ]
[cegb_penalty_feature_coupled: ]
[verbosity: -1]
[max_bin: 255]
[max_bin_by_feature: ]
[min_data_in_bin: 3]
[bin_construct_sample_cnt: 200000]
[histogram_pool_size: -1]
[data_random_seed: 175]
[output_model: LightGBM_model.txt]
[snapshot_freq: -1]
[input_model: ]
[output_result: LightGBM_predict_result.txt]
[initscore_filename: ]
[valid_data_initscores: ]
[pre_partition: 0]
[enable_bundle: 1]
[max_conflict_rate: 0]
[is_enable_sparse: 1]
[sparse_threshold: 0.8]
[use_missing: 1]
[zero_as_missing: 0]
[two_round: 0]
[save_binary: 0]
[header: 0]
[label_column: ]
[weight_column: ]
[group_column: ]
[ignore_column: ]
[categorical_feature: ]
[predict_raw_score: 0]
[predict_leaf_index: 0]
[predict_contrib: 0]
[num_iteration_predict: -1]
[pred_early_stop: 0]
[pred_early_stop_freq: 10]
[pred_early_stop_margin: 10]
[convert_model_language: ]
[convert_model: gbdt_prediction.cpp]
[num_class: 1]
[is_unbalance: 0]
[scale_pos_weight: 1]
[sigmoid: 1]
[boost_from_average: 1]
[reg_sqrt: 0]
[alpha: 0.9]
[fair_c: 1]
[poisson_max_delta_step: 0.7]
[tweedie_variance_power: 1.5]
[max_position: 20]
[lambdamart_norm: 1]
[label_gain: ]
[metric_freq: 1]
[is_provide_training_metric: 0]
[eval_at: ]
[multi_error_top_k: 1]
[num_machines: 1]
[local_listen_port: 12400]
[time_out: 120]
[machine_list_filename: ]
[machines: ]
[gpu_platform_id: -1]
[gpu_device_id: -1]
[gpu_use_dp: 0]

end of parameters

pandas_categorical:null
